digraph Tree {
node [shape=box] ;
0 [label="X[2] <= 3.488\ngini = 0.499\nsamples = 1653\nvalue = [1278, 1379]"] ;
1 [label="X[0] <= 0.99\ngini = 0.499\nsamples = 1516\nvalue = [1273, 1151]"] ;
0 -> 1 [labeldistance=2.5, labelangle=45, headlabel="True"] ;
2 [label="X[1] <= 1.803\ngini = 0.496\nsamples = 1298\nvalue = [1133, 940]"] ;
1 -> 2 ;
3 [label="X[1] <= 1.036\ngini = 0.485\nsamples = 1190\nvalue = [1116, 790]"] ;
2 -> 3 ;
4 [label="X[2] <= 0.69\ngini = 0.494\nsamples = 806\nvalue = [716, 578]"] ;
3 -> 4 ;
5 [label="X[0] <= 0.909\ngini = 0.5\nsamples = 557\nvalue = [432, 460]"] ;
4 -> 5 ;
6 [label="X[0] <= 0.06\ngini = 0.494\nsamples = 455\nvalue = [322, 399]"] ;
5 -> 6 ;
7 [label="X[1] <= 0.647\ngini = 0.474\nsamples = 67\nvalue = [65, 41]"] ;
6 -> 7 ;
8 [label="X[1] <= 0.253\ngini = 0.5\nsamples = 32\nvalue = [24, 25]"] ;
7 -> 8 ;
9 [label="gini = 0.0\nsamples = 3\nvalue = [5, 0]"] ;
8 -> 9 ;
10 [label="X[1] <= 0.471\ngini = 0.491\nsamples = 29\nvalue = [19, 25]"] ;
8 -> 10 ;
11 [label="X[2] <= 0.258\ngini = 0.337\nsamples = 9\nvalue = [3, 11]"] ;
10 -> 11 ;
12 [label="X[1] <= 0.399\ngini = 0.198\nsamples = 5\nvalue = [1, 8]"] ;
11 -> 12 ;
13 [label="gini = 0.0\nsamples = 4\nvalue = [0, 8]"] ;
12 -> 13 ;
14 [label="gini = 0.0\nsamples = 1\nvalue = [1, 0]"] ;
12 -> 14 ;
15 [label="X[1] <= 0.355\ngini = 0.48\nsamples = 4\nvalue = [2, 3]"] ;
11 -> 15 ;
16 [label="gini = 0.0\nsamples = 2\nvalue = [2, 0]"] ;
15 -> 16 ;
17 [label="gini = 0.0\nsamples = 2\nvalue = [0, 3]"] ;
15 -> 17 ;
18 [label="X[0] <= 0.024\ngini = 0.498\nsamples = 20\nvalue = [16, 14]"] ;
10 -> 18 ;
19 [label="X[0] <= 0.004\ngini = 0.488\nsamples = 17\nvalue = [15, 11]"] ;
18 -> 19 ;
20 [label="X[0] <= 0.0\ngini = 0.499\nsamples = 15\nvalue = [12, 11]"] ;
19 -> 20 ;
21 [label="X[2] <= 0.147\ngini = 0.49\nsamples = 14\nvalue = [12, 9]"] ;
20 -> 21 ;
22 [label="X[1] <= 0.618\ngini = 0.498\nsamples = 10\nvalue = [7, 8]"] ;
21 -> 22 ;
23 [label="X[1] <= 0.545\ngini = 0.444\nsamples = 6\nvalue = [6, 3]"] ;
22 -> 23 ;
24 [label="gini = 0.0\nsamples = 1\nvalue = [0, 2]"] ;
23 -> 24 ;
25 [label="X[2] <= -0.795\ngini = 0.245\nsamples = 5\nvalue = [6, 1]"] ;
23 -> 25 ;
26 [label="X[1] <= 0.612\ngini = 0.444\nsamples = 2\nvalue = [2, 1]"] ;
25 -> 26 ;
27 [label="gini = 0.0\nsamples = 1\nvalue = [0, 1]"] ;
26 -> 27 ;
28 [label="gini = 0.0\nsamples = 1\nvalue = [2, 0]"] ;
26 -> 28 ;
29 [label="gini = 0.0\nsamples = 3\nvalue = [4, 0]"] ;
25 -> 29 ;
30 [label="X[2] <= -0.268\ngini = 0.278\nsamples = 4\nvalue = [1, 5]"] ;
22 -> 30 ;
31 [label="gini = 0.0\nsamples = 3\nvalue = [0, 5]"] ;
30 -> 31 ;
32 [label="gini = 0.0\nsamples = 1\nvalue = [1, 0]"] ;
30 -> 32 ;
33 [label="X[1] <= 0.529\ngini = 0.278\nsamples = 4\nvalue = [5, 1]"] ;
21 -> 33 ;
34 [label="X[2] <= 0.426\ngini = 0.5\nsamples = 2\nvalue = [1, 1]"] ;
33 -> 34 ;
35 [label="gini = 0.0\nsamples = 1\nvalue = [0, 1]"] ;
34 -> 35 ;
36 [label="gini = 0.0\nsamples = 1\nvalue = [1, 0]"] ;
34 -> 36 ;
37 [label="gini = 0.0\nsamples = 2\nvalue = [4, 0]"] ;
33 -> 37 ;
38 [label="gini = 0.0\nsamples = 1\nvalue = [0, 2]"] ;
20 -> 38 ;
39 [label="gini = 0.0\nsamples = 2\nvalue = [3, 0]"] ;
19 -> 39 ;
40 [label="X[0] <= 0.037\ngini = 0.375\nsamples = 3\nvalue = [1, 3]"] ;
18 -> 40 ;
41 [label="gini = 0.0\nsamples = 1\nvalue = [0, 2]"] ;
40 -> 41 ;
42 [label="X[2] <= -0.637\ngini = 0.5\nsamples = 2\nvalue = [1, 1]"] ;
40 -> 42 ;
43 [label="gini = 0.0\nsamples = 1\nvalue = [0, 1]"] ;
42 -> 43 ;
44 [label="gini = 0.0\nsamples = 1\nvalue = [1, 0]"] ;
42 -> 44 ;
45 [label="X[2] <= 0.368\ngini = 0.404\nsamples = 35\nvalue = [41, 16]"] ;
7 -> 45 ;
46 [label="X[2] <= 0.027\ngini = 0.102\nsamples = 23\nvalue = [35, 2]"] ;
45 -> 46 ;
47 [label="gini = 0.0\nsamples = 18\nvalue = [28, 0]"] ;
46 -> 47 ;
48 [label="X[2] <= 0.214\ngini = 0.346\nsamples = 5\nvalue = [7, 2]"] ;
46 -> 48 ;
49 [label="gini = 0.0\nsamples = 1\nvalue = [0, 1]"] ;
48 -> 49 ;
50 [label="X[1] <= 0.951\ngini = 0.219\nsamples = 4\nvalue = [7, 1]"] ;
48 -> 50 ;
51 [label="gini = 0.0\nsamples = 1\nvalue = [0, 1]"] ;
50 -> 51 ;
52 [label="gini = 0.0\nsamples = 3\nvalue = [7, 0]"] ;
50 -> 52 ;
53 [label="X[1] <= 1.013\ngini = 0.42\nsamples = 12\nvalue = [6, 14]"] ;
45 -> 53 ;
54 [label="gini = 0.0\nsamples = 5\nvalue = [0, 10]"] ;
53 -> 54 ;
55 [label="X[1] <= 1.033\ngini = 0.48\nsamples = 7\nvalue = [6, 4]"] ;
53 -> 55 ;
56 [label="X[1] <= 1.021\ngini = 0.375\nsamples = 6\nvalue = [6, 2]"] ;
55 -> 56 ;
57 [label="X[2] <= 0.471\ngini = 0.5\nsamples = 3\nvalue = [2, 2]"] ;
56 -> 57 ;
58 [label="gini = 0.0\nsamples = 2\nvalue = [2, 0]"] ;
57 -> 58 ;
59 [label="gini = 0.0\nsamples = 1\nvalue = [0, 2]"] ;
57 -> 59 ;
60 [label="gini = 0.0\nsamples = 3\nvalue = [4, 0]"] ;
56 -> 60 ;
61 [label="gini = 0.0\nsamples = 1\nvalue = [0, 2]"] ;
55 -> 61 ;
62 [label="X[2] <= -1.387\ngini = 0.487\nsamples = 388\nvalue = [257, 358]"] ;
6 -> 62 ;
63 [label="gini = 0.0\nsamples = 24\nvalue = [0, 35]"] ;
62 -> 63 ;
64 [label="X[0] <= 0.244\ngini = 0.494\nsamples = 364\nvalue = [257, 323]"] ;
62 -> 64 ;
65 [label="X[1] <= 0.317\ngini = 0.444\nsamples = 127\nvalue = [64, 128]"] ;
64 -> 65 ;
66 [label="X[0] <= 0.169\ngini = 0.087\nsamples = 14\nvalue = [1, 21]"] ;
65 -> 66 ;
67 [label="gini = 0.0\nsamples = 8\nvalue = [0, 11]"] ;
66 -> 67 ;
68 [label="X[2] <= 0.234\ngini = 0.165\nsamples = 6\nvalue = [1, 10]"] ;
66 -> 68 ;
69 [label="gini = 0.0\nsamples = 5\nvalue = [0, 10]"] ;
68 -> 69 ;
70 [label="gini = 0.0\nsamples = 1\nvalue = [1, 0]"] ;
68 -> 70 ;
71 [label="X[0] <= 0.205\ngini = 0.467\nsamples = 113\nvalue = [63, 107]"] ;
65 -> 71 ;
72 [label="X[2] <= -0.916\ngini = 0.481\nsamples = 97\nvalue = [59, 88]"] ;
71 -> 72 ;
73 [label="X[0] <= 0.156\ngini = 0.384\nsamples = 15\nvalue = [20, 7]"] ;
72 -> 73 ;
74 [label="X[0] <= 0.154\ngini = 0.484\nsamples = 9\nvalue = [10, 7]"] ;
73 -> 74 ;
75 [label="X[0] <= 0.134\ngini = 0.444\nsamples = 8\nvalue = [10, 5]"] ;
74 -> 75 ;
76 [label="X[2] <= -1.151\ngini = 0.5\nsamples = 5\nvalue = [5, 5]"] ;
75 -> 76 ;
77 [label="gini = 0.0\nsamples = 3\nvalue = [0, 5]"] ;
76 -> 77 ;
78 [label="gini = 0.0\nsamples = 2\nvalue = [5, 0]"] ;
76 -> 78 ;
79 [label="gini = 0.0\nsamples = 3\nvalue = [5, 0]"] ;
75 -> 79 ;
80 [label="gini = 0.0\nsamples = 1\nvalue = [0, 2]"] ;
74 -> 80 ;
81 [label="gini = 0.0\nsamples = 6\nvalue = [10, 0]"] ;
73 -> 81 ;
82 [label="X[0] <= 0.197\ngini = 0.439\nsamples = 82\nvalue = [39, 81]"] ;
72 -> 82 ;
83 [label="X[0] <= 0.17\ngini = 0.428\nsamples = 79\nvalue = [36, 80]"] ;
82 -> 83 ;
84 [label="X[0] <= 0.144\ngini = 0.457\nsamples = 66\nvalue = [35, 64]"] ;
83 -> 84 ;
85 [label="X[1] <= 0.374\ngini = 0.403\nsamples = 50\nvalue = [21, 54]"] ;
84 -> 85 ;
86 [label="gini = 0.0\nsamples = 6\nvalue = [9, 0]"] ;
85 -> 86 ;
87 [label="X[1] <= 0.901\ngini = 0.298\nsamples = 44\nvalue = [12, 54]"] ;
85 -> 87 ;
88 [label="X[1] <= 0.766\ngini = 0.401\nsamples = 25\nvalue = [10, 26]"] ;
87 -> 88 ;
89 [label="X[1] <= 0.591\ngini = 0.133\nsamples = 20\nvalue = [2, 26]"] ;
88 -> 89 ;
90 [label="X[1] <= 0.579\ngini = 0.26\nsamples = 11\nvalue = [2, 11]"] ;
89 -> 90 ;
91 [label="gini = 0.0\nsamples = 8\nvalue = [0, 10]"] ;
90 -> 91 ;
92 [label="X[1] <= 0.581\ngini = 0.444\nsamples = 3\nvalue = [2, 1]"] ;
90 -> 92 ;
93 [label="gini = 0.0\nsamples = 1\nvalue = [1, 0]"] ;
92 -> 93 ;
94 [label="X[1] <= 0.583\ngini = 0.5\nsamples = 2\nvalue = [1, 1]"] ;
92 -> 94 ;
95 [label="gini = 0.0\nsamples = 1\nvalue = [0, 1]"] ;
94 -> 95 ;
96 [label="gini = 0.0\nsamples = 1\nvalue = [1, 0]"] ;
94 -> 96 ;
97 [label="gini = 0.0\nsamples = 9\nvalue = [0, 15]"] ;
89 -> 97 ;
98 [label="gini = 0.0\nsamples = 5\nvalue = [8, 0]"] ;
88 -> 98 ;
99 [label="X[2] <= 0.507\ngini = 0.124\nsamples = 19\nvalue = [2, 28]"] ;
87 -> 99 ;
100 [label="gini = 0.0\nsamples = 17\nvalue = [0, 28]"] ;
99 -> 100 ;
101 [label="gini = 0.0\nsamples = 2\nvalue = [2, 0]"] ;
99 -> 101 ;
102 [label="X[2] <= 0.334\ngini = 0.486\nsamples = 16\nvalue = [14, 10]"] ;
84 -> 102 ;
103 [label="X[0] <= 0.167\ngini = 0.499\nsamples = 13\nvalue = [9, 10]"] ;
102 -> 103 ;
104 [label="X[2] <= 0.069\ngini = 0.48\nsamples = 11\nvalue = [9, 6]"] ;
103 -> 104 ;
105 [label="X[1] <= 0.666\ngini = 0.298\nsamples = 8\nvalue = [9, 2]"] ;
104 -> 105 ;
106 [label="gini = 0.0\nsamples = 2\nvalue = [0, 2]"] ;
105 -> 106 ;
107 [label="gini = 0.0\nsamples = 6\nvalue = [9, 0]"] ;
105 -> 107 ;
108 [label="gini = 0.0\nsamples = 3\nvalue = [0, 4]"] ;
104 -> 108 ;
109 [label="gini = 0.0\nsamples = 2\nvalue = [0, 4]"] ;
103 -> 109 ;
110 [label="gini = 0.0\nsamples = 3\nvalue = [5, 0]"] ;
102 -> 110 ;
111 [label="X[1] <= 0.977\ngini = 0.111\nsamples = 13\nvalue = [1, 16]"] ;
83 -> 111 ;
112 [label="gini = 0.0\nsamples = 10\nvalue = [0, 14]"] ;
111 -> 112 ;
113 [label="X[1] <= 0.986\ngini = 0.444\nsamples = 3\nvalue = [1, 2]"] ;
111 -> 113 ;
114 [label="gini = 0.0\nsamples = 1\nvalue = [1, 0]"] ;
113 -> 114 ;
115 [label="gini = 0.0\nsamples = 2\nvalue = [0, 2]"] ;
113 -> 115 ;
116 [label="X[0] <= 0.199\ngini = 0.375\nsamples = 3\nvalue = [3, 1]"] ;
82 -> 116 ;
117 [label="gini = 0.0\nsamples = 1\nvalue = [2, 0]"] ;
116 -> 117 ;
118 [label="X[2] <= 0.324\ngini = 0.5\nsamples = 2\nvalue = [1, 1]"] ;
116 -> 118 ;
119 [label="gini = 0.0\nsamples = 1\nvalue = [0, 1]"] ;
118 -> 119 ;
120 [label="gini = 0.0\nsamples = 1\nvalue = [1, 0]"] ;
118 -> 120 ;
121 [label="X[0] <= 0.221\ngini = 0.287\nsamples = 16\nvalue = [4, 19]"] ;
71 -> 121 ;
122 [label="X[1] <= 0.902\ngini = 0.142\nsamples = 8\nvalue = [1, 12]"] ;
121 -> 122 ;
123 [label="gini = 0.0\nsamples = 7\nvalue = [0, 12]"] ;
122 -> 123 ;
124 [label="gini = 0.0\nsamples = 1\nvalue = [1, 0]"] ;
122 -> 124 ;
125 [label="X[2] <= -0.496\ngini = 0.42\nsamples = 8\nvalue = [3, 7]"] ;
121 -> 125 ;
126 [label="gini = 0.0\nsamples = 2\nvalue = [2, 0]"] ;
125 -> 126 ;
127 [label="X[1] <= 0.947\ngini = 0.219\nsamples = 6\nvalue = [1, 7]"] ;
125 -> 127 ;
128 [label="X[2] <= 0.261\ngini = 0.375\nsamples = 3\nvalue = [1, 3]"] ;
127 -> 128 ;
129 [label="gini = 0.0\nsamples = 2\nvalue = [0, 3]"] ;
128 -> 129 ;
130 [label="gini = 0.0\nsamples = 1\nvalue = [1, 0]"] ;
128 -> 130 ;
131 [label="gini = 0.0\nsamples = 3\nvalue = [0, 4]"] ;
127 -> 131 ;
132 [label="X[0] <= 0.317\ngini = 0.5\nsamples = 237\nvalue = [193, 195]"] ;
64 -> 132 ;
133 [label="X[1] <= 0.938\ngini = 0.464\nsamples = 34\nvalue = [40, 23]"] ;
132 -> 133 ;
134 [label="X[2] <= 0.275\ngini = 0.375\nsamples = 29\nvalue = [39, 13]"] ;
133 -> 134 ;
135 [label="X[1] <= 0.636\ngini = 0.461\nsamples = 22\nvalue = [23, 13]"] ;
134 -> 135 ;
136 [label="X[1] <= 0.427\ngini = 0.142\nsamples = 9\nvalue = [1, 12]"] ;
135 -> 136 ;
137 [label="X[0] <= 0.271\ngini = 0.278\nsamples = 5\nvalue = [1, 5]"] ;
136 -> 137 ;
138 [label="gini = 0.0\nsamples = 1\nvalue = [1, 0]"] ;
137 -> 138 ;
139 [label="gini = 0.0\nsamples = 4\nvalue = [0, 5]"] ;
137 -> 139 ;
140 [label="gini = 0.0\nsamples = 4\nvalue = [0, 7]"] ;
136 -> 140 ;
141 [label="X[0] <= 0.252\ngini = 0.083\nsamples = 13\nvalue = [22, 1]"] ;
135 -> 141 ;
142 [label="gini = 0.0\nsamples = 1\nvalue = [0, 1]"] ;
141 -> 142 ;
143 [label="gini = 0.0\nsamples = 12\nvalue = [22, 0]"] ;
141 -> 143 ;
144 [label="gini = 0.0\nsamples = 7\nvalue = [16, 0]"] ;
134 -> 144 ;
145 [label="X[1] <= 0.952\ngini = 0.165\nsamples = 5\nvalue = [1, 10]"] ;
133 -> 145 ;
146 [label="X[1] <= 0.943\ngini = 0.32\nsamples = 2\nvalue = [1, 4]"] ;
145 -> 146 ;
147 [label="gini = 0.0\nsamples = 1\nvalue = [0, 4]"] ;
146 -> 147 ;
148 [label="gini = 0.0\nsamples = 1\nvalue = [1, 0]"] ;
146 -> 148 ;
149 [label="gini = 0.0\nsamples = 3\nvalue = [0, 6]"] ;
145 -> 149 ;
150 [label="X[0] <= 0.387\ngini = 0.498\nsamples = 203\nvalue = [153, 172]"] ;
132 -> 150 ;
151 [label="X[0] <= 0.367\ngini = 0.375\nsamples = 26\nvalue = [11, 33]"] ;
150 -> 151 ;
152 [label="X[0] <= 0.364\ngini = 0.452\nsamples = 16\nvalue = [10, 19]"] ;
151 -> 152 ;
153 [label="X[1] <= 0.667\ngini = 0.365\nsamples = 15\nvalue = [6, 19]"] ;
152 -> 153 ;
154 [label="X[2] <= 0.256\ngini = 0.142\nsamples = 7\nvalue = [1, 12]"] ;
153 -> 154 ;
155 [label="gini = 0.0\nsamples = 6\nvalue = [0, 12]"] ;
154 -> 155 ;
156 [label="gini = 0.0\nsamples = 1\nvalue = [1, 0]"] ;
154 -> 156 ;
157 [label="X[2] <= -0.9\ngini = 0.486\nsamples = 8\nvalue = [5, 7]"] ;
153 -> 157 ;
158 [label="gini = 0.0\nsamples = 2\nvalue = [3, 0]"] ;
157 -> 158 ;
159 [label="X[2] <= 0.311\ngini = 0.346\nsamples = 6\nvalue = [2, 7]"] ;
157 -> 159 ;
160 [label="gini = 0.0\nsamples = 5\nvalue = [0, 7]"] ;
159 -> 160 ;
161 [label="gini = 0.0\nsamples = 1\nvalue = [2, 0]"] ;
159 -> 161 ;
162 [label="gini = 0.0\nsamples = 1\nvalue = [4, 0]"] ;
152 -> 162 ;
163 [label="X[1] <= 0.593\ngini = 0.124\nsamples = 10\nvalue = [1, 14]"] ;
151 -> 163 ;
164 [label="gini = 0.0\nsamples = 7\nvalue = [0, 10]"] ;
163 -> 164 ;
165 [label="X[0] <= 0.377\ngini = 0.32\nsamples = 3\nvalue = [1, 4]"] ;
163 -> 165 ;
166 [label="X[1] <= 0.834\ngini = 0.5\nsamples = 2\nvalue = [1, 1]"] ;
165 -> 166 ;
167 [label="gini = 0.0\nsamples = 1\nvalue = [1, 0]"] ;
166 -> 167 ;
168 [label="gini = 0.0\nsamples = 1\nvalue = [0, 1]"] ;
166 -> 168 ;
169 [label="gini = 0.0\nsamples = 1\nvalue = [0, 3]"] ;
165 -> 169 ;
170 [label="X[0] <= 0.416\ngini = 0.5\nsamples = 177\nvalue = [142, 139]"] ;
150 -> 170 ;
171 [label="X[2] <= -0.508\ngini = 0.211\nsamples = 14\nvalue = [22, 3]"] ;
170 -> 171 ;
172 [label="gini = 0.0\nsamples = 7\nvalue = [13, 0]"] ;
171 -> 172 ;
173 [label="X[2] <= 0.197\ngini = 0.375\nsamples = 7\nvalue = [9, 3]"] ;
171 -> 173 ;
174 [label="X[1] <= 0.594\ngini = 0.48\nsamples = 3\nvalue = [2, 3]"] ;
173 -> 174 ;
175 [label="gini = 0.0\nsamples = 2\nvalue = [0, 3]"] ;
174 -> 175 ;
176 [label="gini = 0.0\nsamples = 1\nvalue = [2, 0]"] ;
174 -> 176 ;
177 [label="gini = 0.0\nsamples = 4\nvalue = [7, 0]"] ;
173 -> 177 ;
178 [label="X[0] <= 0.487\ngini = 0.498\nsamples = 163\nvalue = [120, 136]"] ;
170 -> 178 ;
179 [label="X[1] <= 0.731\ngini = 0.295\nsamples = 26\nvalue = [7, 32]"] ;
178 -> 179 ;
180 [label="gini = 0.0\nsamples = 20\nvalue = [0, 31]"] ;
179 -> 180 ;
181 [label="X[1] <= 0.765\ngini = 0.219\nsamples = 6\nvalue = [7, 1]"] ;
179 -> 181 ;
182 [label="X[2] <= -0.957\ngini = 0.5\nsamples = 2\nvalue = [1, 1]"] ;
181 -> 182 ;
183 [label="gini = 0.0\nsamples = 1\nvalue = [1, 0]"] ;
182 -> 183 ;
184 [label="gini = 0.0\nsamples = 1\nvalue = [0, 1]"] ;
182 -> 184 ;
185 [label="gini = 0.0\nsamples = 4\nvalue = [6, 0]"] ;
181 -> 185 ;
186 [label="X[1] <= 0.83\ngini = 0.499\nsamples = 137\nvalue = [113, 104]"] ;
178 -> 186 ;
187 [label="X[1] <= 0.525\ngini = 0.474\nsamples = 98\nvalue = [59, 94]"] ;
186 -> 187 ;
188 [label="X[1] <= 0.274\ngini = 0.496\nsamples = 49\nvalue = [42, 35]"] ;
187 -> 188 ;
189 [label="gini = 0.0\nsamples = 4\nvalue = [7, 0]"] ;
188 -> 189 ;
190 [label="X[1] <= 0.295\ngini = 0.5\nsamples = 45\nvalue = [35, 35]"] ;
188 -> 190 ;
191 [label="gini = 0.0\nsamples = 4\nvalue = [0, 6]"] ;
190 -> 191 ;
192 [label="X[1] <= 0.522\ngini = 0.496\nsamples = 41\nvalue = [35, 29]"] ;
190 -> 192 ;
193 [label="X[0] <= 0.678\ngini = 0.5\nsamples = 39\nvalue = [29, 29]"] ;
192 -> 193 ;
194 [label="X[1] <= 0.468\ngini = 0.351\nsamples = 14\nvalue = [5, 17]"] ;
193 -> 194 ;
195 [label="X[1] <= 0.31\ngini = 0.117\nsamples = 9\nvalue = [1, 15]"] ;
194 -> 195 ;
196 [label="gini = 0.0\nsamples = 5\nvalue = [0, 8]"] ;
195 -> 196 ;
197 [label="X[0] <= 0.539\ngini = 0.219\nsamples = 4\nvalue = [1, 7]"] ;
195 -> 197 ;
198 [label="gini = 0.0\nsamples = 1\nvalue = [1, 0]"] ;
197 -> 198 ;
199 [label="gini = 0.0\nsamples = 3\nvalue = [0, 7]"] ;
197 -> 199 ;
200 [label="X[2] <= -0.023\ngini = 0.444\nsamples = 5\nvalue = [4, 2]"] ;
194 -> 200 ;
201 [label="gini = 0.0\nsamples = 3\nvalue = [4, 0]"] ;
200 -> 201 ;
202 [label="gini = 0.0\nsamples = 2\nvalue = [0, 2]"] ;
200 -> 202 ;
203 [label="X[1] <= 0.414\ngini = 0.444\nsamples = 25\nvalue = [24, 12]"] ;
193 -> 203 ;
204 [label="gini = 0.0\nsamples = 9\nvalue = [13, 0]"] ;
203 -> 204 ;
205 [label="X[2] <= -0.598\ngini = 0.499\nsamples = 16\nvalue = [11, 12]"] ;
203 -> 205 ;
206 [label="X[0] <= 0.885\ngini = 0.375\nsamples = 11\nvalue = [4, 12]"] ;
205 -> 206 ;
207 [label="X[1] <= 0.455\ngini = 0.463\nsamples = 6\nvalue = [4, 7]"] ;
206 -> 207 ;
208 [label="X[0] <= 0.82\ngini = 0.49\nsamples = 4\nvalue = [4, 3]"] ;
207 -> 208 ;
209 [label="gini = 0.0\nsamples = 1\nvalue = [0, 3]"] ;
208 -> 209 ;
210 [label="gini = 0.0\nsamples = 3\nvalue = [4, 0]"] ;
208 -> 210 ;
211 [label="gini = 0.0\nsamples = 2\nvalue = [0, 4]"] ;
207 -> 211 ;
212 [label="gini = 0.0\nsamples = 5\nvalue = [0, 5]"] ;
206 -> 212 ;
213 [label="gini = 0.0\nsamples = 5\nvalue = [7, 0]"] ;
205 -> 213 ;
214 [label="gini = 0.0\nsamples = 2\nvalue = [6, 0]"] ;
192 -> 214 ;
215 [label="X[1] <= 0.672\ngini = 0.347\nsamples = 49\nvalue = [17, 59]"] ;
187 -> 215 ;
216 [label="X[1] <= 0.572\ngini = 0.234\nsamples = 38\nvalue = [8, 51]"] ;
215 -> 216 ;
217 [label="X[0] <= 0.885\ngini = 0.064\nsamples = 21\nvalue = [1, 29]"] ;
216 -> 217 ;
218 [label="gini = 0.0\nsamples = 18\nvalue = [0, 27]"] ;
217 -> 218 ;
219 [label="X[2] <= -0.774\ngini = 0.444\nsamples = 3\nvalue = [1, 2]"] ;
217 -> 219 ;
220 [label="gini = 0.0\nsamples = 1\nvalue = [0, 1]"] ;
219 -> 220 ;
221 [label="X[2] <= -0.287\ngini = 0.5\nsamples = 2\nvalue = [1, 1]"] ;
219 -> 221 ;
222 [label="gini = 0.0\nsamples = 1\nvalue = [1, 0]"] ;
221 -> 222 ;
223 [label="gini = 0.0\nsamples = 1\nvalue = [0, 1]"] ;
221 -> 223 ;
224 [label="X[2] <= 0.617\ngini = 0.366\nsamples = 17\nvalue = [7, 22]"] ;
216 -> 224 ;
225 [label="X[0] <= 0.754\ngini = 0.087\nsamples = 13\nvalue = [1, 21]"] ;
224 -> 225 ;
226 [label="X[1] <= 0.607\ngini = 0.375\nsamples = 2\nvalue = [1, 3]"] ;
225 -> 226 ;
227 [label="gini = 0.0\nsamples = 1\nvalue = [1, 0]"] ;
226 -> 227 ;
228 [label="gini = 0.0\nsamples = 1\nvalue = [0, 3]"] ;
226 -> 228 ;
229 [label="gini = 0.0\nsamples = 11\nvalue = [0, 18]"] ;
225 -> 229 ;
230 [label="X[1] <= 0.618\ngini = 0.245\nsamples = 4\nvalue = [6, 1]"] ;
224 -> 230 ;
231 [label="gini = 0.0\nsamples = 3\nvalue = [6, 0]"] ;
230 -> 231 ;
232 [label="gini = 0.0\nsamples = 1\nvalue = [0, 1]"] ;
230 -> 232 ;
233 [label="X[2] <= -0.123\ngini = 0.498\nsamples = 11\nvalue = [9, 8]"] ;
215 -> 233 ;
234 [label="X[1] <= 0.786\ngini = 0.198\nsamples = 7\nvalue = [1, 8]"] ;
233 -> 234 ;
235 [label="gini = 0.0\nsamples = 5\nvalue = [0, 6]"] ;
234 -> 235 ;
236 [label="X[0] <= 0.756\ngini = 0.444\nsamples = 2\nvalue = [1, 2]"] ;
234 -> 236 ;
237 [label="gini = 0.0\nsamples = 1\nvalue = [1, 0]"] ;
236 -> 237 ;
238 [label="gini = 0.0\nsamples = 1\nvalue = [0, 2]"] ;
236 -> 238 ;
239 [label="gini = 0.0\nsamples = 4\nvalue = [8, 0]"] ;
233 -> 239 ;
240 [label="X[0] <= 0.686\ngini = 0.264\nsamples = 39\nvalue = [54, 10]"] ;
186 -> 240 ;
241 [label="gini = 0.0\nsamples = 13\nvalue = [19, 0]"] ;
240 -> 241 ;
242 [label="X[1] <= 0.919\ngini = 0.346\nsamples = 26\nvalue = [35, 10]"] ;
240 -> 242 ;
243 [label="gini = 0.0\nsamples = 18\nvalue = [31, 0]"] ;
242 -> 243 ;
244 [label="X[1] <= 0.921\ngini = 0.408\nsamples = 8\nvalue = [4, 10]"] ;
242 -> 244 ;
245 [label="gini = 0.0\nsamples = 2\nvalue = [0, 5]"] ;
244 -> 245 ;
246 [label="X[0] <= 0.888\ngini = 0.494\nsamples = 6\nvalue = [4, 5]"] ;
244 -> 246 ;
247 [label="X[1] <= 0.922\ngini = 0.408\nsamples = 5\nvalue = [2, 5]"] ;
246 -> 247 ;
248 [label="gini = 0.0\nsamples = 1\nvalue = [2, 0]"] ;
247 -> 248 ;
249 [label="gini = 0.0\nsamples = 4\nvalue = [0, 5]"] ;
247 -> 249 ;
250 [label="gini = 0.0\nsamples = 1\nvalue = [2, 0]"] ;
246 -> 250 ;
251 [label="X[1] <= 0.257\ngini = 0.459\nsamples = 102\nvalue = [110, 61]"] ;
5 -> 251 ;
252 [label="X[1] <= -0.03\ngini = 0.453\nsamples = 16\nvalue = [9, 17]"] ;
251 -> 252 ;
253 [label="gini = 0.0\nsamples = 4\nvalue = [0, 5]"] ;
252 -> 253 ;
254 [label="X[1] <= 0.175\ngini = 0.49\nsamples = 12\nvalue = [9, 12]"] ;
252 -> 254 ;
255 [label="gini = 0.0\nsamples = 3\nvalue = [4, 0]"] ;
254 -> 255 ;
256 [label="X[2] <= -0.853\ngini = 0.415\nsamples = 9\nvalue = [5, 12]"] ;
254 -> 256 ;
257 [label="X[2] <= -0.862\ngini = 0.278\nsamples = 3\nvalue = [5, 1]"] ;
256 -> 257 ;
258 [label="gini = 0.0\nsamples = 1\nvalue = [3, 0]"] ;
257 -> 258 ;
259 [label="X[2] <= -0.855\ngini = 0.444\nsamples = 2\nvalue = [2, 1]"] ;
257 -> 259 ;
260 [label="gini = 0.0\nsamples = 1\nvalue = [0, 1]"] ;
259 -> 260 ;
261 [label="gini = 0.0\nsamples = 1\nvalue = [2, 0]"] ;
259 -> 261 ;
262 [label="gini = 0.0\nsamples = 6\nvalue = [0, 11]"] ;
256 -> 262 ;
263 [label="X[2] <= -0.88\ngini = 0.423\nsamples = 86\nvalue = [101, 44]"] ;
251 -> 263 ;
264 [label="X[1] <= 0.712\ngini = 0.389\nsamples = 24\nvalue = [9, 25]"] ;
263 -> 264 ;
265 [label="X[0] <= 0.94\ngini = 0.238\nsamples = 21\nvalue = [4, 25]"] ;
264 -> 265 ;
266 [label="gini = 0.0\nsamples = 7\nvalue = [0, 10]"] ;
265 -> 266 ;
267 [label="X[2] <= -1.22\ngini = 0.332\nsamples = 14\nvalue = [4, 15]"] ;
265 -> 267 ;
268 [label="gini = 0.0\nsamples = 2\nvalue = [0, 4]"] ;
267 -> 268 ;
269 [label="X[0] <= 0.979\ngini = 0.391\nsamples = 12\nvalue = [4, 11]"] ;
267 -> 269 ;
270 [label="X[1] <= 0.391\ngini = 0.278\nsamples = 10\nvalue = [2, 10]"] ;
269 -> 270 ;
271 [label="gini = 0.0\nsamples = 2\nvalue = [2, 0]"] ;
270 -> 271 ;
272 [label="gini = 0.0\nsamples = 8\nvalue = [0, 10]"] ;
270 -> 272 ;
273 [label="X[0] <= 0.981\ngini = 0.444\nsamples = 2\nvalue = [2, 1]"] ;
269 -> 273 ;
274 [label="gini = 0.0\nsamples = 1\nvalue = [2, 0]"] ;
273 -> 274 ;
275 [label="gini = 0.0\nsamples = 1\nvalue = [0, 1]"] ;
273 -> 275 ;
276 [label="gini = 0.0\nsamples = 3\nvalue = [5, 0]"] ;
264 -> 276 ;
277 [label="X[0] <= 0.977\ngini = 0.284\nsamples = 62\nvalue = [92, 19]"] ;
263 -> 277 ;
278 [label="X[0] <= 0.947\ngini = 0.176\nsamples = 45\nvalue = [74, 8]"] ;
277 -> 278 ;
279 [label="X[1] <= 0.501\ngini = 0.305\nsamples = 18\nvalue = [26, 6]"] ;
278 -> 279 ;
280 [label="gini = 0.0\nsamples = 8\nvalue = [13, 0]"] ;
279 -> 280 ;
281 [label="X[1] <= 0.525\ngini = 0.432\nsamples = 10\nvalue = [13, 6]"] ;
279 -> 281 ;
282 [label="gini = 0.0\nsamples = 1\nvalue = [0, 2]"] ;
281 -> 282 ;
283 [label="X[0] <= 0.938\ngini = 0.36\nsamples = 9\nvalue = [13, 4]"] ;
281 -> 283 ;
284 [label="X[1] <= 0.646\ngini = 0.142\nsamples = 6\nvalue = [12, 1]"] ;
283 -> 284 ;
285 [label="X[2] <= 0.095\ngini = 0.278\nsamples = 3\nvalue = [5, 1]"] ;
284 -> 285 ;
286 [label="X[0] <= 0.923\ngini = 0.444\nsamples = 2\nvalue = [2, 1]"] ;
285 -> 286 ;
287 [label="gini = 0.0\nsamples = 1\nvalue = [0, 1]"] ;
286 -> 287 ;
288 [label="gini = 0.0\nsamples = 1\nvalue = [2, 0]"] ;
286 -> 288 ;
289 [label="gini = 0.0\nsamples = 1\nvalue = [3, 0]"] ;
285 -> 289 ;
290 [label="gini = 0.0\nsamples = 3\nvalue = [7, 0]"] ;
284 -> 290 ;
291 [label="X[0] <= 0.94\ngini = 0.375\nsamples = 3\nvalue = [1, 3]"] ;
283 -> 291 ;
292 [label="gini = 0.0\nsamples = 1\nvalue = [0, 2]"] ;
291 -> 292 ;
293 [label="X[1] <= 0.774\ngini = 0.5\nsamples = 2\nvalue = [1, 1]"] ;
291 -> 293 ;
294 [label="gini = 0.0\nsamples = 1\nvalue = [0, 1]"] ;
293 -> 294 ;
295 [label="gini = 0.0\nsamples = 1\nvalue = [1, 0]"] ;
293 -> 295 ;
296 [label="X[0] <= 0.962\ngini = 0.077\nsamples = 27\nvalue = [48, 2]"] ;
278 -> 296 ;
297 [label="gini = 0.0\nsamples = 11\nvalue = [23, 0]"] ;
296 -> 297 ;
298 [label="X[2] <= -0.741\ngini = 0.137\nsamples = 16\nvalue = [25, 2]"] ;
296 -> 298 ;
299 [label="gini = 0.0\nsamples = 1\nvalue = [0, 1]"] ;
298 -> 299 ;
300 [label="X[2] <= -0.568\ngini = 0.074\nsamples = 15\nvalue = [25, 1]"] ;
298 -> 300 ;
301 [label="X[2] <= -0.614\ngini = 0.444\nsamples = 3\nvalue = [2, 1]"] ;
300 -> 301 ;
302 [label="gini = 0.0\nsamples = 2\nvalue = [2, 0]"] ;
301 -> 302 ;
303 [label="gini = 0.0\nsamples = 1\nvalue = [0, 1]"] ;
301 -> 303 ;
304 [label="gini = 0.0\nsamples = 12\nvalue = [23, 0]"] ;
300 -> 304 ;
305 [label="X[2] <= -0.067\ngini = 0.471\nsamples = 17\nvalue = [18, 11]"] ;
277 -> 305 ;
306 [label="X[2] <= -0.625\ngini = 0.1\nsamples = 12\nvalue = [18, 1]"] ;
305 -> 306 ;
307 [label="X[2] <= -0.669\ngini = 0.219\nsamples = 5\nvalue = [7, 1]"] ;
306 -> 307 ;
308 [label="gini = 0.0\nsamples = 4\nvalue = [7, 0]"] ;
307 -> 308 ;
309 [label="gini = 0.0\nsamples = 1\nvalue = [0, 1]"] ;
307 -> 309 ;
310 [label="gini = 0.0\nsamples = 7\nvalue = [11, 0]"] ;
306 -> 310 ;
311 [label="gini = 0.0\nsamples = 5\nvalue = [0, 10]"] ;
305 -> 311 ;
312 [label="X[0] <= 0.255\ngini = 0.415\nsamples = 249\nvalue = [284, 118]"] ;
4 -> 312 ;
313 [label="X[0] <= 0.212\ngini = 0.473\nsamples = 99\nvalue = [103, 64]"] ;
312 -> 313 ;
314 [label="X[1] <= 0.687\ngini = 0.45\nsamples = 92\nvalue = [102, 53]"] ;
313 -> 314 ;
315 [label="X[2] <= 1.098\ngini = 0.138\nsamples = 63\nvalue = [99, 8]"] ;
314 -> 315 ;
316 [label="X[1] <= 0.385\ngini = 0.444\nsamples = 4\nvalue = [4, 2]"] ;
315 -> 316 ;
317 [label="gini = 0.0\nsamples = 1\nvalue = [2, 0]"] ;
316 -> 317 ;
318 [label="X[0] <= 0.083\ngini = 0.5\nsamples = 3\nvalue = [2, 2]"] ;
316 -> 318 ;
319 [label="gini = 0.0\nsamples = 1\nvalue = [0, 2]"] ;
318 -> 319 ;
320 [label="gini = 0.0\nsamples = 2\nvalue = [2, 0]"] ;
318 -> 320 ;
321 [label="X[1] <= 0.167\ngini = 0.112\nsamples = 59\nvalue = [95, 6]"] ;
315 -> 321 ;
322 [label="X[0] <= 0.031\ngini = 0.5\nsamples = 2\nvalue = [2, 2]"] ;
321 -> 322 ;
323 [label="gini = 0.0\nsamples = 1\nvalue = [0, 2]"] ;
322 -> 323 ;
324 [label="gini = 0.0\nsamples = 1\nvalue = [2, 0]"] ;
322 -> 324 ;
325 [label="X[1] <= 0.365\ngini = 0.079\nsamples = 57\nvalue = [93, 4]"] ;
321 -> 325 ;
326 [label="X[0] <= 0.143\ngini = 0.156\nsamples = 28\nvalue = [43, 4]"] ;
325 -> 326 ;
327 [label="X[2] <= 1.201\ngini = 0.102\nsamples = 21\nvalue = [35, 2]"] ;
326 -> 327 ;
328 [label="gini = 0.0\nsamples = 1\nvalue = [0, 1]"] ;
327 -> 328 ;
329 [label="X[0] <= 0.005\ngini = 0.054\nsamples = 20\nvalue = [35, 1]"] ;
327 -> 329 ;
330 [label="X[1] <= 0.275\ngini = 0.245\nsamples = 5\nvalue = [6, 1]"] ;
329 -> 330 ;
331 [label="gini = 0.0\nsamples = 2\nvalue = [3, 0]"] ;
330 -> 331 ;
332 [label="X[1] <= 0.316\ngini = 0.375\nsamples = 3\nvalue = [3, 1]"] ;
330 -> 332 ;
333 [label="gini = 0.0\nsamples = 1\nvalue = [0, 1]"] ;
332 -> 333 ;
334 [label="gini = 0.0\nsamples = 2\nvalue = [3, 0]"] ;
332 -> 334 ;
335 [label="gini = 0.0\nsamples = 15\nvalue = [29, 0]"] ;
329 -> 335 ;
336 [label="X[0] <= 0.165\ngini = 0.32\nsamples = 7\nvalue = [8, 2]"] ;
326 -> 336 ;
337 [label="X[2] <= 1.84\ngini = 0.444\nsamples = 3\nvalue = [1, 2]"] ;
336 -> 337 ;
338 [label="gini = 0.0\nsamples = 2\nvalue = [0, 2]"] ;
337 -> 338 ;
339 [label="gini = 0.0\nsamples = 1\nvalue = [1, 0]"] ;
337 -> 339 ;
340 [label="gini = 0.0\nsamples = 4\nvalue = [7, 0]"] ;
336 -> 340 ;
341 [label="gini = 0.0\nsamples = 29\nvalue = [50, 0]"] ;
325 -> 341 ;
342 [label="X[1] <= 0.753\ngini = 0.117\nsamples = 29\nvalue = [3, 45]"] ;
314 -> 342 ;
343 [label="gini = 0.0\nsamples = 15\nvalue = [0, 24]"] ;
342 -> 343 ;
344 [label="X[1] <= 0.754\ngini = 0.219\nsamples = 14\nvalue = [3, 21]"] ;
342 -> 344 ;
345 [label="gini = 0.0\nsamples = 1\nvalue = [3, 0]"] ;
344 -> 345 ;
346 [label="gini = 0.0\nsamples = 13\nvalue = [0, 21]"] ;
344 -> 346 ;
347 [label="X[1] <= 0.363\ngini = 0.153\nsamples = 7\nvalue = [1, 11]"] ;
313 -> 347 ;
348 [label="gini = 0.0\nsamples = 5\nvalue = [0, 9]"] ;
347 -> 348 ;
349 [label="X[0] <= 0.236\ngini = 0.444\nsamples = 2\nvalue = [1, 2]"] ;
347 -> 349 ;
350 [label="gini = 0.0\nsamples = 1\nvalue = [0, 2]"] ;
349 -> 350 ;
351 [label="gini = 0.0\nsamples = 1\nvalue = [1, 0]"] ;
349 -> 351 ;
352 [label="X[1] <= 0.612\ngini = 0.354\nsamples = 150\nvalue = [181, 54]"] ;
312 -> 352 ;
353 [label="X[1] <= 0.37\ngini = 0.2\nsamples = 125\nvalue = [173, 22]"] ;
352 -> 353 ;
354 [label="X[2] <= 1.717\ngini = 0.327\nsamples = 42\nvalue = [54, 14]"] ;
353 -> 354 ;
355 [label="gini = 0.0\nsamples = 12\nvalue = [22, 0]"] ;
354 -> 355 ;
356 [label="X[1] <= 0.345\ngini = 0.423\nsamples = 30\nvalue = [32, 14]"] ;
354 -> 356 ;
357 [label="gini = 0.0\nsamples = 20\nvalue = [32, 0]"] ;
356 -> 357 ;
358 [label="gini = 0.0\nsamples = 10\nvalue = [0, 14]"] ;
356 -> 358 ;
359 [label="X[2] <= 1.484\ngini = 0.118\nsamples = 83\nvalue = [119, 8]"] ;
353 -> 359 ;
360 [label="X[2] <= 1.353\ngini = 0.15\nsamples = 58\nvalue = [79, 7]"] ;
359 -> 360 ;
361 [label="X[1] <= 0.502\ngini = 0.131\nsamples = 57\nvalue = [79, 6]"] ;
360 -> 361 ;
362 [label="gini = 0.0\nsamples = 28\nvalue = [43, 0]"] ;
361 -> 362 ;
363 [label="X[1] <= 0.559\ngini = 0.245\nsamples = 29\nvalue = [36, 6]"] ;
361 -> 363 ;
364 [label="gini = 0.0\nsamples = 4\nvalue = [0, 6]"] ;
363 -> 364 ;
365 [label="gini = 0.0\nsamples = 25\nvalue = [36, 0]"] ;
363 -> 365 ;
366 [label="gini = 0.0\nsamples = 1\nvalue = [0, 1]"] ;
360 -> 366 ;
367 [label="X[2] <= 2.799\ngini = 0.048\nsamples = 25\nvalue = [40, 1]"] ;
359 -> 367 ;
368 [label="gini = 0.0\nsamples = 20\nvalue = [31, 0]"] ;
367 -> 368 ;
369 [label="X[2] <= 3.11\ngini = 0.18\nsamples = 5\nvalue = [9, 1]"] ;
367 -> 369 ;
370 [label="gini = 0.0\nsamples = 1\nvalue = [0, 1]"] ;
369 -> 370 ;
371 [label="gini = 0.0\nsamples = 4\nvalue = [9, 0]"] ;
369 -> 371 ;
372 [label="X[1] <= 0.691\ngini = 0.32\nsamples = 25\nvalue = [8, 32]"] ;
352 -> 372 ;
373 [label="X[0] <= 0.606\ngini = 0.161\nsamples = 21\nvalue = [3, 31]"] ;
372 -> 373 ;
374 [label="X[1] <= 0.654\ngini = 0.375\nsamples = 4\nvalue = [3, 1]"] ;
373 -> 374 ;
375 [label="gini = 0.0\nsamples = 1\nvalue = [0, 1]"] ;
374 -> 375 ;
376 [label="gini = 0.0\nsamples = 3\nvalue = [3, 0]"] ;
374 -> 376 ;
377 [label="gini = 0.0\nsamples = 17\nvalue = [0, 30]"] ;
373 -> 377 ;
378 [label="X[0] <= 0.719\ngini = 0.278\nsamples = 4\nvalue = [5, 1]"] ;
372 -> 378 ;
379 [label="gini = 0.0\nsamples = 3\nvalue = [5, 0]"] ;
378 -> 379 ;
380 [label="gini = 0.0\nsamples = 1\nvalue = [0, 1]"] ;
378 -> 380 ;
381 [label="X[1] <= 1.159\ngini = 0.453\nsamples = 384\nvalue = [400, 212]"] ;
3 -> 381 ;
382 [label="X[1] <= 1.095\ngini = 0.236\nsamples = 73\nvalue = [101, 16]"] ;
381 -> 382 ;
383 [label="X[0] <= 0.13\ngini = 0.163\nsamples = 48\nvalue = [71, 7]"] ;
382 -> 383 ;
384 [label="X[0] <= 0.121\ngini = 0.334\nsamples = 23\nvalue = [26, 7]"] ;
383 -> 384 ;
385 [label="X[0] <= 0.078\ngini = 0.305\nsamples = 22\nvalue = [26, 6]"] ;
384 -> 385 ;
386 [label="X[0] <= 0.009\ngini = 0.252\nsamples = 18\nvalue = [23, 4]"] ;
385 -> 386 ;
387 [label="X[2] <= 0.357\ngini = 0.346\nsamples = 11\nvalue = [14, 4]"] ;
386 -> 387 ;
388 [label="X[0] <= 0.005\ngini = 0.48\nsamples = 7\nvalue = [6, 4]"] ;
387 -> 388 ;
389 [label="X[1] <= 1.056\ngini = 0.444\nsamples = 6\nvalue = [6, 3]"] ;
388 -> 389 ;
390 [label="gini = 0.0\nsamples = 3\nvalue = [5, 0]"] ;
389 -> 390 ;
391 [label="X[1] <= 1.072\ngini = 0.375\nsamples = 3\nvalue = [1, 3]"] ;
389 -> 391 ;
392 [label="gini = 0.0\nsamples = 2\nvalue = [0, 3]"] ;
391 -> 392 ;
393 [label="gini = 0.0\nsamples = 1\nvalue = [1, 0]"] ;
391 -> 393 ;
394 [label="gini = 0.0\nsamples = 1\nvalue = [0, 1]"] ;
388 -> 394 ;
395 [label="gini = 0.0\nsamples = 4\nvalue = [8, 0]"] ;
387 -> 395 ;
396 [label="gini = 0.0\nsamples = 7\nvalue = [9, 0]"] ;
386 -> 396 ;
397 [label="X[0] <= 0.084\ngini = 0.48\nsamples = 4\nvalue = [3, 2]"] ;
385 -> 397 ;
398 [label="gini = 0.0\nsamples = 1\nvalue = [0, 2]"] ;
397 -> 398 ;
399 [label="gini = 0.0\nsamples = 3\nvalue = [3, 0]"] ;
397 -> 399 ;
400 [label="gini = 0.0\nsamples = 1\nvalue = [0, 1]"] ;
384 -> 400 ;
401 [label="gini = 0.0\nsamples = 25\nvalue = [45, 0]"] ;
383 -> 401 ;
402 [label="X[0] <= 0.008\ngini = 0.355\nsamples = 25\nvalue = [30, 9]"] ;
382 -> 402 ;
403 [label="X[2] <= -0.373\ngini = 0.346\nsamples = 5\nvalue = [2, 7]"] ;
402 -> 403 ;
404 [label="gini = 0.0\nsamples = 2\nvalue = [2, 0]"] ;
403 -> 404 ;
405 [label="gini = 0.0\nsamples = 3\nvalue = [0, 7]"] ;
403 -> 405 ;
406 [label="X[1] <= 1.121\ngini = 0.124\nsamples = 20\nvalue = [28, 2]"] ;
402 -> 406 ;
407 [label="gini = 0.0\nsamples = 1\nvalue = [0, 1]"] ;
406 -> 407 ;
408 [label="X[0] <= 0.077\ngini = 0.067\nsamples = 19\nvalue = [28, 1]"] ;
406 -> 408 ;
409 [label="X[2] <= 0.209\ngini = 0.219\nsamples = 5\nvalue = [7, 1]"] ;
408 -> 409 ;
410 [label="gini = 0.0\nsamples = 3\nvalue = [5, 0]"] ;
409 -> 410 ;
411 [label="X[2] <= 1.064\ngini = 0.444\nsamples = 2\nvalue = [2, 1]"] ;
409 -> 411 ;
412 [label="gini = 0.0\nsamples = 1\nvalue = [0, 1]"] ;
411 -> 412 ;
413 [label="gini = 0.0\nsamples = 1\nvalue = [2, 0]"] ;
411 -> 413 ;
414 [label="gini = 0.0\nsamples = 14\nvalue = [21, 0]"] ;
408 -> 414 ;
415 [label="X[1] <= 1.752\ngini = 0.478\nsamples = 311\nvalue = [299, 196]"] ;
381 -> 415 ;
416 [label="X[2] <= -0.702\ngini = 0.486\nsamples = 289\nvalue = [271, 194]"] ;
415 -> 416 ;
417 [label="X[1] <= 1.553\ngini = 0.016\nsamples = 78\nvalue = [125, 1]"] ;
416 -> 417 ;
418 [label="X[1] <= 1.541\ngini = 0.051\nsamples = 23\nvalue = [37, 1]"] ;
417 -> 418 ;
419 [label="gini = 0.0\nsamples = 22\nvalue = [37, 0]"] ;
418 -> 419 ;
420 [label="gini = 0.0\nsamples = 1\nvalue = [0, 1]"] ;
418 -> 420 ;
421 [label="gini = 0.0\nsamples = 55\nvalue = [88, 0]"] ;
417 -> 421 ;
422 [label="X[2] <= -0.032\ngini = 0.49\nsamples = 211\nvalue = [146, 193]"] ;
416 -> 422 ;
423 [label="X[2] <= -0.572\ngini = 0.347\nsamples = 81\nvalue = [29, 101]"] ;
422 -> 423 ;
424 [label="X[0] <= 0.346\ngini = 0.491\nsamples = 18\nvalue = [13, 10]"] ;
423 -> 424 ;
425 [label="X[1] <= 1.445\ngini = 0.305\nsamples = 12\nvalue = [13, 3]"] ;
424 -> 425 ;
426 [label="gini = 0.0\nsamples = 10\nvalue = [13, 0]"] ;
425 -> 426 ;
427 [label="gini = 0.0\nsamples = 2\nvalue = [0, 3]"] ;
425 -> 427 ;
428 [label="gini = 0.0\nsamples = 6\nvalue = [0, 7]"] ;
424 -> 428 ;
429 [label="X[0] <= 0.387\ngini = 0.254\nsamples = 63\nvalue = [16, 91]"] ;
423 -> 429 ;
430 [label="X[1] <= 1.278\ngini = 0.088\nsamples = 34\nvalue = [3, 62]"] ;
429 -> 430 ;
431 [label="X[2] <= -0.282\ngini = 0.245\nsamples = 7\nvalue = [2, 12]"] ;
430 -> 431 ;
432 [label="gini = 0.0\nsamples = 6\nvalue = [0, 12]"] ;
431 -> 432 ;
433 [label="gini = 0.0\nsamples = 1\nvalue = [2, 0]"] ;
431 -> 433 ;
434 [label="X[0] <= 0.245\ngini = 0.038\nsamples = 27\nvalue = [1, 50]"] ;
430 -> 434 ;
435 [label="gini = 0.0\nsamples = 17\nvalue = [0, 32]"] ;
434 -> 435 ;
436 [label="X[1] <= 1.457\ngini = 0.1\nsamples = 10\nvalue = [1, 18]"] ;
434 -> 436 ;
437 [label="X[0] <= 0.308\ngini = 0.32\nsamples = 2\nvalue = [1, 4]"] ;
436 -> 437 ;
438 [label="gini = 0.0\nsamples = 1\nvalue = [1, 0]"] ;
437 -> 438 ;
439 [label="gini = 0.0\nsamples = 1\nvalue = [0, 4]"] ;
437 -> 439 ;
440 [label="gini = 0.0\nsamples = 8\nvalue = [0, 14]"] ;
436 -> 440 ;
441 [label="X[0] <= 0.628\ngini = 0.427\nsamples = 29\nvalue = [13, 29]"] ;
429 -> 441 ;
442 [label="X[2] <= -0.423\ngini = 0.133\nsamples = 10\nvalue = [13, 1]"] ;
441 -> 442 ;
443 [label="gini = 0.0\nsamples = 1\nvalue = [0, 1]"] ;
442 -> 443 ;
444 [label="gini = 0.0\nsamples = 9\nvalue = [13, 0]"] ;
442 -> 444 ;
445 [label="gini = 0.0\nsamples = 19\nvalue = [0, 28]"] ;
441 -> 445 ;
446 [label="X[0] <= 0.906\ngini = 0.493\nsamples = 130\nvalue = [117, 92]"] ;
422 -> 446 ;
447 [label="X[0] <= 0.103\ngini = 0.482\nsamples = 122\nvalue = [117, 80]"] ;
446 -> 447 ;
448 [label="X[0] <= 0.011\ngini = 0.375\nsamples = 18\nvalue = [7, 21]"] ;
447 -> 448 ;
449 [label="X[2] <= 1.687\ngini = 0.18\nsamples = 7\nvalue = [1, 9]"] ;
448 -> 449 ;
450 [label="X[1] <= 1.322\ngini = 0.5\nsamples = 2\nvalue = [1, 1]"] ;
449 -> 450 ;
451 [label="gini = 0.0\nsamples = 1\nvalue = [0, 1]"] ;
450 -> 451 ;
452 [label="gini = 0.0\nsamples = 1\nvalue = [1, 0]"] ;
450 -> 452 ;
453 [label="gini = 0.0\nsamples = 5\nvalue = [0, 8]"] ;
449 -> 453 ;
454 [label="X[0] <= 0.05\ngini = 0.444\nsamples = 11\nvalue = [6, 12]"] ;
448 -> 454 ;
455 [label="X[0] <= 0.032\ngini = 0.32\nsamples = 4\nvalue = [4, 1]"] ;
454 -> 455 ;
456 [label="X[0] <= 0.024\ngini = 0.5\nsamples = 2\nvalue = [1, 1]"] ;
455 -> 456 ;
457 [label="gini = 0.0\nsamples = 1\nvalue = [1, 0]"] ;
456 -> 457 ;
458 [label="gini = 0.0\nsamples = 1\nvalue = [0, 1]"] ;
456 -> 458 ;
459 [label="gini = 0.0\nsamples = 2\nvalue = [3, 0]"] ;
455 -> 459 ;
460 [label="X[2] <= 1.432\ngini = 0.26\nsamples = 7\nvalue = [2, 11]"] ;
454 -> 460 ;
461 [label="gini = 0.0\nsamples = 1\nvalue = [2, 0]"] ;
460 -> 461 ;
462 [label="gini = 0.0\nsamples = 6\nvalue = [0, 11]"] ;
460 -> 462 ;
463 [label="X[0] <= 0.757\ngini = 0.454\nsamples = 104\nvalue = [110, 59]"] ;
447 -> 463 ;
464 [label="X[2] <= 2.027\ngini = 0.429\nsamples = 83\nvalue = [95, 43]"] ;
463 -> 464 ;
465 [label="X[1] <= 1.489\ngini = 0.365\nsamples = 74\nvalue = [95, 30]"] ;
464 -> 465 ;
466 [label="X[0] <= 0.138\ngini = 0.117\nsamples = 56\nvalue = [90, 6]"] ;
465 -> 466 ;
467 [label="X[0] <= 0.136\ngini = 0.444\nsamples = 4\nvalue = [4, 2]"] ;
466 -> 467 ;
468 [label="gini = 0.0\nsamples = 3\nvalue = [4, 0]"] ;
467 -> 468 ;
469 [label="gini = 0.0\nsamples = 1\nvalue = [0, 2]"] ;
467 -> 469 ;
470 [label="X[1] <= 1.219\ngini = 0.085\nsamples = 52\nvalue = [86, 4]"] ;
466 -> 470 ;
471 [label="X[0] <= 0.414\ngini = 0.245\nsamples = 14\nvalue = [18, 3]"] ;
470 -> 471 ;
472 [label="gini = 0.0\nsamples = 11\nvalue = [17, 0]"] ;
471 -> 472 ;
473 [label="X[2] <= 0.283\ngini = 0.375\nsamples = 3\nvalue = [1, 3]"] ;
471 -> 473 ;
474 [label="X[0] <= 0.553\ngini = 0.5\nsamples = 2\nvalue = [1, 1]"] ;
473 -> 474 ;
475 [label="gini = 0.0\nsamples = 1\nvalue = [0, 1]"] ;
474 -> 475 ;
476 [label="gini = 0.0\nsamples = 1\nvalue = [1, 0]"] ;
474 -> 476 ;
477 [label="gini = 0.0\nsamples = 1\nvalue = [0, 2]"] ;
473 -> 477 ;
478 [label="X[1] <= 1.374\ngini = 0.029\nsamples = 38\nvalue = [68, 1]"] ;
470 -> 478 ;
479 [label="gini = 0.0\nsamples = 33\nvalue = [59, 0]"] ;
478 -> 479 ;
480 [label="X[2] <= 0.997\ngini = 0.18\nsamples = 5\nvalue = [9, 1]"] ;
478 -> 480 ;
481 [label="gini = 0.0\nsamples = 1\nvalue = [0, 1]"] ;
480 -> 481 ;
482 [label="gini = 0.0\nsamples = 4\nvalue = [9, 0]"] ;
480 -> 482 ;
483 [label="X[0] <= 0.41\ngini = 0.285\nsamples = 18\nvalue = [5, 24]"] ;
465 -> 483 ;
484 [label="X[1] <= 1.616\ngini = 0.486\nsamples = 8\nvalue = [5, 7]"] ;
483 -> 484 ;
485 [label="gini = 0.0\nsamples = 3\nvalue = [0, 5]"] ;
484 -> 485 ;
486 [label="X[2] <= 1.92\ngini = 0.408\nsamples = 5\nvalue = [5, 2]"] ;
484 -> 486 ;
487 [label="gini = 0.0\nsamples = 1\nvalue = [0, 2]"] ;
486 -> 487 ;
488 [label="gini = 0.0\nsamples = 4\nvalue = [5, 0]"] ;
486 -> 488 ;
489 [label="gini = 0.0\nsamples = 10\nvalue = [0, 17]"] ;
483 -> 489 ;
490 [label="gini = 0.0\nsamples = 9\nvalue = [0, 13]"] ;
464 -> 490 ;
491 [label="X[1] <= 1.225\ngini = 0.499\nsamples = 21\nvalue = [15, 16]"] ;
463 -> 491 ;
492 [label="X[0] <= 0.801\ngini = 0.278\nsamples = 8\nvalue = [2, 10]"] ;
491 -> 492 ;
493 [label="X[0] <= 0.794\ngini = 0.444\nsamples = 2\nvalue = [2, 1]"] ;
492 -> 493 ;
494 [label="gini = 0.0\nsamples = 1\nvalue = [0, 1]"] ;
493 -> 494 ;
495 [label="gini = 0.0\nsamples = 1\nvalue = [2, 0]"] ;
493 -> 495 ;
496 [label="gini = 0.0\nsamples = 6\nvalue = [0, 9]"] ;
492 -> 496 ;
497 [label="X[0] <= 0.872\ngini = 0.432\nsamples = 13\nvalue = [13, 6]"] ;
491 -> 497 ;
498 [label="X[1] <= 1.459\ngini = 0.496\nsamples = 8\nvalue = [5, 6]"] ;
497 -> 498 ;
499 [label="gini = 0.0\nsamples = 3\nvalue = [5, 0]"] ;
498 -> 499 ;
500 [label="gini = 0.0\nsamples = 5\nvalue = [0, 6]"] ;
498 -> 500 ;
501 [label="gini = 0.0\nsamples = 5\nvalue = [8, 0]"] ;
497 -> 501 ;
502 [label="gini = 0.0\nsamples = 8\nvalue = [0, 12]"] ;
446 -> 502 ;
503 [label="X[2] <= 2.208\ngini = 0.124\nsamples = 22\nvalue = [28, 2]"] ;
415 -> 503 ;
504 [label="X[1] <= 1.789\ngini = 0.067\nsamples = 21\nvalue = [28, 1]"] ;
503 -> 504 ;
505 [label="gini = 0.0\nsamples = 15\nvalue = [19, 0]"] ;
504 -> 505 ;
506 [label="X[2] <= -0.761\ngini = 0.18\nsamples = 6\nvalue = [9, 1]"] ;
504 -> 506 ;
507 [label="gini = 0.0\nsamples = 3\nvalue = [7, 0]"] ;
506 -> 507 ;
508 [label="X[2] <= 0.738\ngini = 0.444\nsamples = 3\nvalue = [2, 1]"] ;
506 -> 508 ;
509 [label="gini = 0.0\nsamples = 1\nvalue = [0, 1]"] ;
508 -> 509 ;
510 [label="gini = 0.0\nsamples = 2\nvalue = [2, 0]"] ;
508 -> 510 ;
511 [label="gini = 0.0\nsamples = 1\nvalue = [0, 1]"] ;
503 -> 511 ;
512 [label="X[0] <= 0.7\ngini = 0.183\nsamples = 108\nvalue = [17, 150]"] ;
2 -> 512 ;
513 [label="X[0] <= 0.431\ngini = 0.044\nsamples = 89\nvalue = [3, 131]"] ;
512 -> 513 ;
514 [label="X[0] <= 0.417\ngini = 0.081\nsamples = 48\nvalue = [3, 68]"] ;
513 -> 514 ;
515 [label="X[0] <= 0.299\ngini = 0.029\nsamples = 47\nvalue = [1, 68]"] ;
514 -> 515 ;
516 [label="gini = 0.0\nsamples = 34\nvalue = [0, 49]"] ;
515 -> 516 ;
517 [label="X[0] <= 0.318\ngini = 0.095\nsamples = 13\nvalue = [1, 19]"] ;
515 -> 517 ;
518 [label="gini = 0.0\nsamples = 1\nvalue = [1, 0]"] ;
517 -> 518 ;
519 [label="gini = 0.0\nsamples = 12\nvalue = [0, 19]"] ;
517 -> 519 ;
520 [label="gini = 0.0\nsamples = 1\nvalue = [2, 0]"] ;
514 -> 520 ;
521 [label="gini = 0.0\nsamples = 41\nvalue = [0, 63]"] ;
513 -> 521 ;
522 [label="X[1] <= 2.104\ngini = 0.489\nsamples = 19\nvalue = [14, 19]"] ;
512 -> 522 ;
523 [label="X[2] <= -1.015\ngini = 0.486\nsamples = 15\nvalue = [14, 10]"] ;
522 -> 523 ;
524 [label="gini = 0.0\nsamples = 4\nvalue = [5, 0]"] ;
523 -> 524 ;
525 [label="X[2] <= 0.59\ngini = 0.499\nsamples = 11\nvalue = [9, 10]"] ;
523 -> 525 ;
526 [label="X[1] <= 2.014\ngini = 0.444\nsamples = 10\nvalue = [5, 10]"] ;
525 -> 526 ;
527 [label="gini = 0.0\nsamples = 8\nvalue = [0, 10]"] ;
526 -> 527 ;
528 [label="gini = 0.0\nsamples = 2\nvalue = [5, 0]"] ;
526 -> 528 ;
529 [label="gini = 0.0\nsamples = 1\nvalue = [4, 0]"] ;
525 -> 529 ;
530 [label="gini = 0.0\nsamples = 4\nvalue = [0, 9]"] ;
522 -> 530 ;
531 [label="X[1] <= 0.587\ngini = 0.48\nsamples = 218\nvalue = [140, 211]"] ;
1 -> 531 ;
532 [label="X[0] <= 0.995\ngini = 0.44\nsamples = 144\nvalue = [76, 157]"] ;
531 -> 532 ;
533 [label="gini = 0.0\nsamples = 6\nvalue = [0, 10]"] ;
532 -> 533 ;
534 [label="X[0] <= 0.995\ngini = 0.449\nsamples = 138\nvalue = [76, 147]"] ;
532 -> 534 ;
535 [label="gini = 0.0\nsamples = 1\nvalue = [2, 0]"] ;
534 -> 535 ;
536 [label="X[0] <= 0.999\ngini = 0.445\nsamples = 137\nvalue = [74, 147]"] ;
534 -> 536 ;
537 [label="X[2] <= -0.853\ngini = 0.18\nsamples = 7\nvalue = [1, 9]"] ;
536 -> 537 ;
538 [label="gini = 0.0\nsamples = 4\nvalue = [0, 6]"] ;
537 -> 538 ;
539 [label="X[2] <= -0.11\ngini = 0.375\nsamples = 3\nvalue = [1, 3]"] ;
537 -> 539 ;
540 [label="gini = 0.0\nsamples = 1\nvalue = [1, 0]"] ;
539 -> 540 ;
541 [label="gini = 0.0\nsamples = 2\nvalue = [0, 3]"] ;
539 -> 541 ;
542 [label="X[0] <= 0.999\ngini = 0.453\nsamples = 130\nvalue = [73, 138]"] ;
536 -> 542 ;
543 [label="gini = 0.0\nsamples = 1\nvalue = [2, 0]"] ;
542 -> 543 ;
544 [label="X[1] <= 0.533\ngini = 0.449\nsamples = 129\nvalue = [71, 138]"] ;
542 -> 544 ;
545 [label="X[1] <= 0.515\ngini = 0.467\nsamples = 118\nvalue = [71, 120]"] ;
544 -> 545 ;
546 [label="X[2] <= -0.949\ngini = 0.455\nsamples = 111\nvalue = [63, 117]"] ;
545 -> 546 ;
547 [label="X[2] <= -1.229\ngini = 0.223\nsamples = 29\nvalue = [6, 41]"] ;
546 -> 547 ;
548 [label="gini = 0.0\nsamples = 10\nvalue = [0, 18]"] ;
547 -> 548 ;
549 [label="X[2] <= -1.186\ngini = 0.328\nsamples = 19\nvalue = [6, 23]"] ;
547 -> 549 ;
550 [label="gini = 0.0\nsamples = 2\nvalue = [3, 0]"] ;
549 -> 550 ;
551 [label="X[1] <= 0.384\ngini = 0.204\nsamples = 17\nvalue = [3, 23]"] ;
549 -> 551 ;
552 [label="X[2] <= -0.991\ngini = 0.375\nsamples = 6\nvalue = [2, 6]"] ;
551 -> 552 ;
553 [label="X[1] <= 0.321\ngini = 0.245\nsamples = 5\nvalue = [1, 6]"] ;
552 -> 553 ;
554 [label="gini = 0.0\nsamples = 4\nvalue = [0, 6]"] ;
553 -> 554 ;
555 [label="gini = 0.0\nsamples = 1\nvalue = [1, 0]"] ;
553 -> 555 ;
556 [label="gini = 0.0\nsamples = 1\nvalue = [1, 0]"] ;
552 -> 556 ;
557 [label="X[2] <= -1.164\ngini = 0.105\nsamples = 11\nvalue = [1, 17]"] ;
551 -> 557 ;
558 [label="X[1] <= 0.492\ngini = 0.5\nsamples = 2\nvalue = [1, 1]"] ;
557 -> 558 ;
559 [label="gini = 0.0\nsamples = 1\nvalue = [1, 0]"] ;
558 -> 559 ;
560 [label="gini = 0.0\nsamples = 1\nvalue = [0, 1]"] ;
558 -> 560 ;
561 [label="gini = 0.0\nsamples = 9\nvalue = [0, 16]"] ;
557 -> 561 ;
562 [label="X[2] <= 1.069\ngini = 0.49\nsamples = 82\nvalue = [57, 76]"] ;
546 -> 562 ;
563 [label="X[0] <= 1.0\ngini = 0.498\nsamples = 61\nvalue = [55, 48]"] ;
562 -> 563 ;
564 [label="gini = 0.0\nsamples = 1\nvalue = [0, 1]"] ;
563 -> 564 ;
565 [label="X[1] <= 0.487\ngini = 0.497\nsamples = 60\nvalue = [55, 47]"] ;
563 -> 565 ;
566 [label="X[2] <= -0.76\ngini = 0.489\nsamples = 54\nvalue = [54, 40]"] ;
565 -> 566 ;
567 [label="X[2] <= -0.839\ngini = 0.444\nsamples = 16\nvalue = [10, 20]"] ;
566 -> 567 ;
568 [label="X[1] <= 0.225\ngini = 0.499\nsamples = 12\nvalue = [10, 11]"] ;
567 -> 568 ;
569 [label="X[1] <= 0.198\ngini = 0.278\nsamples = 7\nvalue = [10, 2]"] ;
568 -> 569 ;
570 [label="gini = 0.0\nsamples = 5\nvalue = [8, 0]"] ;
569 -> 570 ;
571 [label="X[2] <= -0.855\ngini = 0.5\nsamples = 2\nvalue = [2, 2]"] ;
569 -> 571 ;
572 [label="gini = 0.0\nsamples = 1\nvalue = [2, 0]"] ;
571 -> 572 ;
573 [label="gini = 0.0\nsamples = 1\nvalue = [0, 2]"] ;
571 -> 573 ;
574 [label="gini = 0.0\nsamples = 5\nvalue = [0, 9]"] ;
568 -> 574 ;
575 [label="gini = 0.0\nsamples = 4\nvalue = [0, 9]"] ;
567 -> 575 ;
576 [label="X[2] <= -0.126\ngini = 0.43\nsamples = 38\nvalue = [44, 20]"] ;
566 -> 576 ;
577 [label="X[1] <= 0.247\ngini = 0.278\nsamples = 21\nvalue = [30, 6]"] ;
576 -> 577 ;
578 [label="gini = 0.0\nsamples = 3\nvalue = [0, 6]"] ;
577 -> 578 ;
579 [label="gini = 0.0\nsamples = 18\nvalue = [30, 0]"] ;
577 -> 579 ;
580 [label="X[2] <= 0.832\ngini = 0.5\nsamples = 17\nvalue = [14, 14]"] ;
576 -> 580 ;
581 [label="X[2] <= 0.552\ngini = 0.375\nsamples = 11\nvalue = [4, 12]"] ;
580 -> 581 ;
582 [label="X[1] <= 0.323\ngini = 0.48\nsamples = 6\nvalue = [4, 6]"] ;
581 -> 582 ;
583 [label="gini = 0.0\nsamples = 2\nvalue = [2, 0]"] ;
582 -> 583 ;
584 [label="X[1] <= 0.428\ngini = 0.375\nsamples = 4\nvalue = [2, 6]"] ;
582 -> 584 ;
585 [label="gini = 0.0\nsamples = 3\nvalue = [0, 6]"] ;
584 -> 585 ;
586 [label="gini = 0.0\nsamples = 1\nvalue = [2, 0]"] ;
584 -> 586 ;
587 [label="gini = 0.0\nsamples = 5\nvalue = [0, 6]"] ;
581 -> 587 ;
588 [label="X[1] <= 0.329\ngini = 0.278\nsamples = 6\nvalue = [10, 2]"] ;
580 -> 588 ;
589 [label="gini = 0.0\nsamples = 1\nvalue = [0, 2]"] ;
588 -> 589 ;
590 [label="gini = 0.0\nsamples = 5\nvalue = [10, 0]"] ;
588 -> 590 ;
591 [label="X[1] <= 0.504\ngini = 0.219\nsamples = 6\nvalue = [1, 7]"] ;
565 -> 591 ;
592 [label="gini = 0.0\nsamples = 3\nvalue = [0, 4]"] ;
591 -> 592 ;
593 [label="X[1] <= 0.507\ngini = 0.375\nsamples = 3\nvalue = [1, 3]"] ;
591 -> 593 ;
594 [label="gini = 0.0\nsamples = 1\nvalue = [1, 0]"] ;
593 -> 594 ;
595 [label="gini = 0.0\nsamples = 2\nvalue = [0, 3]"] ;
593 -> 595 ;
596 [label="X[1] <= 0.503\ngini = 0.124\nsamples = 21\nvalue = [2, 28]"] ;
562 -> 596 ;
597 [label="gini = 0.0\nsamples = 19\nvalue = [0, 28]"] ;
596 -> 597 ;
598 [label="gini = 0.0\nsamples = 2\nvalue = [2, 0]"] ;
596 -> 598 ;
599 [label="X[1] <= 0.517\ngini = 0.397\nsamples = 7\nvalue = [8, 3]"] ;
545 -> 599 ;
600 [label="gini = 0.0\nsamples = 2\nvalue = [5, 0]"] ;
599 -> 600 ;
601 [label="X[1] <= 0.518\ngini = 0.5\nsamples = 5\nvalue = [3, 3]"] ;
599 -> 601 ;
602 [label="gini = 0.0\nsamples = 1\nvalue = [0, 1]"] ;
601 -> 602 ;
603 [label="X[1] <= 0.52\ngini = 0.48\nsamples = 4\nvalue = [3, 2]"] ;
601 -> 603 ;
604 [label="gini = 0.0\nsamples = 1\nvalue = [2, 0]"] ;
603 -> 604 ;
605 [label="X[2] <= -0.727\ngini = 0.444\nsamples = 3\nvalue = [1, 2]"] ;
603 -> 605 ;
606 [label="gini = 0.0\nsamples = 2\nvalue = [0, 2]"] ;
605 -> 606 ;
607 [label="gini = 0.0\nsamples = 1\nvalue = [1, 0]"] ;
605 -> 607 ;
608 [label="gini = 0.0\nsamples = 11\nvalue = [0, 18]"] ;
544 -> 608 ;
609 [label="X[0] <= 0.994\ngini = 0.496\nsamples = 74\nvalue = [64, 54]"] ;
531 -> 609 ;
610 [label="gini = 0.0\nsamples = 2\nvalue = [4, 0]"] ;
609 -> 610 ;
611 [label="X[1] <= 2.122\ngini = 0.499\nsamples = 72\nvalue = [60, 54]"] ;
609 -> 611 ;
612 [label="X[0] <= 0.996\ngini = 0.478\nsamples = 65\nvalue = [60, 39]"] ;
611 -> 612 ;
613 [label="gini = 0.0\nsamples = 2\nvalue = [0, 2]"] ;
612 -> 613 ;
614 [label="X[2] <= 1.248\ngini = 0.472\nsamples = 63\nvalue = [60, 37]"] ;
612 -> 614 ;
615 [label="X[2] <= -0.643\ngini = 0.408\nsamples = 54\nvalue = [60, 24]"] ;
614 -> 615 ;
616 [label="X[2] <= -0.956\ngini = 0.121\nsamples = 21\nvalue = [29, 2]"] ;
615 -> 616 ;
617 [label="X[2] <= -1.02\ngini = 0.298\nsamples = 7\nvalue = [9, 2]"] ;
616 -> 617 ;
618 [label="gini = 0.0\nsamples = 5\nvalue = [9, 0]"] ;
617 -> 618 ;
619 [label="gini = 0.0\nsamples = 2\nvalue = [0, 2]"] ;
617 -> 619 ;
620 [label="gini = 0.0\nsamples = 14\nvalue = [20, 0]"] ;
616 -> 620 ;
621 [label="X[1] <= 0.628\ngini = 0.486\nsamples = 33\nvalue = [31, 22]"] ;
615 -> 621 ;
622 [label="X[2] <= -0.367\ngini = 0.355\nsamples = 15\nvalue = [20, 6]"] ;
621 -> 622 ;
623 [label="X[1] <= 0.61\ngini = 0.444\nsamples = 3\nvalue = [1, 2]"] ;
622 -> 623 ;
624 [label="gini = 0.0\nsamples = 1\nvalue = [0, 1]"] ;
623 -> 624 ;
625 [label="X[1] <= 0.614\ngini = 0.5\nsamples = 2\nvalue = [1, 1]"] ;
623 -> 625 ;
626 [label="gini = 0.0\nsamples = 1\nvalue = [1, 0]"] ;
625 -> 626 ;
627 [label="gini = 0.0\nsamples = 1\nvalue = [0, 1]"] ;
625 -> 627 ;
628 [label="X[2] <= -0.094\ngini = 0.287\nsamples = 12\nvalue = [19, 4]"] ;
622 -> 628 ;
629 [label="gini = 0.0\nsamples = 6\nvalue = [13, 0]"] ;
628 -> 629 ;
630 [label="X[2] <= 0.312\ngini = 0.48\nsamples = 6\nvalue = [6, 4]"] ;
628 -> 630 ;
631 [label="gini = 0.0\nsamples = 3\nvalue = [0, 4]"] ;
630 -> 631 ;
632 [label="gini = 0.0\nsamples = 3\nvalue = [6, 0]"] ;
630 -> 632 ;
633 [label="X[0] <= 0.999\ngini = 0.483\nsamples = 18\nvalue = [11, 16]"] ;
621 -> 633 ;
634 [label="gini = 0.0\nsamples = 1\nvalue = [0, 2]"] ;
633 -> 634 ;
635 [label="X[2] <= 0.168\ngini = 0.493\nsamples = 17\nvalue = [11, 14]"] ;
633 -> 635 ;
636 [label="X[2] <= -0.245\ngini = 0.388\nsamples = 12\nvalue = [5, 14]"] ;
635 -> 636 ;
637 [label="X[2] <= -0.354\ngini = 0.473\nsamples = 8\nvalue = [5, 8]"] ;
636 -> 637 ;
638 [label="gini = 0.0\nsamples = 3\nvalue = [0, 5]"] ;
637 -> 638 ;
639 [label="X[2] <= -0.309\ngini = 0.469\nsamples = 5\nvalue = [5, 3]"] ;
637 -> 639 ;
640 [label="gini = 0.0\nsamples = 1\nvalue = [3, 0]"] ;
639 -> 640 ;
641 [label="X[2] <= -0.259\ngini = 0.48\nsamples = 4\nvalue = [2, 3]"] ;
639 -> 641 ;
642 [label="gini = 0.0\nsamples = 3\nvalue = [0, 3]"] ;
641 -> 642 ;
643 [label="gini = 0.0\nsamples = 1\nvalue = [2, 0]"] ;
641 -> 643 ;
644 [label="gini = 0.0\nsamples = 4\nvalue = [0, 6]"] ;
636 -> 644 ;
645 [label="gini = 0.0\nsamples = 5\nvalue = [6, 0]"] ;
635 -> 645 ;
646 [label="gini = 0.0\nsamples = 9\nvalue = [0, 13]"] ;
614 -> 646 ;
647 [label="gini = 0.0\nsamples = 7\nvalue = [0, 15]"] ;
611 -> 647 ;
648 [label="X[1] <= 0.497\ngini = 0.042\nsamples = 137\nvalue = [5, 228]"] ;
0 -> 648 [labeldistance=2.5, labelangle=-45, headlabel="False"] ;
649 [label="X[1] <= 0.481\ngini = 0.168\nsamples = 29\nvalue = [5, 49]"] ;
648 -> 649 ;
650 [label="gini = 0.0\nsamples = 26\nvalue = [0, 48]"] ;
649 -> 650 ;
651 [label="X[2] <= 4.455\ngini = 0.278\nsamples = 3\nvalue = [5, 1]"] ;
649 -> 651 ;
652 [label="gini = 0.0\nsamples = 2\nvalue = [5, 0]"] ;
651 -> 652 ;
653 [label="gini = 0.0\nsamples = 1\nvalue = [0, 1]"] ;
651 -> 653 ;
654 [label="gini = 0.0\nsamples = 108\nvalue = [0, 179]"] ;
648 -> 654 ;
}
